tree
version=v4
num_class=1
num_tree_per_iteration=1
label_index=0
max_feature_idx=22
objective=binary sigmoid:1
feature_names=Column_0 Column_1 Column_2 Column_3 Column_4 Column_5 Column_6 Column_7 Column_8 Column_9 Column_10 Column_11 Column_12 Column_13 Column_14 Column_15 Column_16 Column_17 Column_18 Column_19 Column_20 Column_21 Column_22
feature_infos=[0:1] [0:44] [0:44] [0:285] [0:1] [0:23] [0:6] [2021:2023] [1:12] [1:31] [0:23] [0:1981] [411:12808] [2.2599999999999998:168.08199999999999] [0.80000000000000004:169.69999999999999] [0.80000000000000004:160.5] [80:100] [0:48.416666666666657] [0:1] [0:1] [0:1] [0:120] [0:129.5]
tree_sizes=3315

Tree=0
num_leaves=31
num_cat=0
split_feature=17 17 17 5 14 17 5 5 15 17 6 14 19 17 13 13 13 13 5 13 5 11 3 13 13 17 2 1 13 5
split_gain=3.06589e+06 88553.8 71277.8 27458.7 25487.1 12861.9 10751.3 10452.2 9494.71 8065.81 7383.65 6602.19 5088.5 4507.73 5878.75 3806.85 3762.49 3952.71 3114.06 2899.41 2763.41 2954.96 3109.22 2923.6 8332.65 2663.32 2635.71 2278.31 2273.38 2253.53
threshold=19.208333333333339 21.625000000000004 17.208333333333339 16.500000000000004 46.750000000000007 24.625000000000004 16.500000000000004 17.500000000000004 39.45000000000001 20.541666666666668 5.5000000000000009 46.750000000000007 1.0000000180025095e-35 14.958333333333334 48.728500000000004 135.34850000000003 27.011500000000002 22.025000000000002 17.500000000000004 12.000000000000002 6.5000000000000009 95.500000000000014 59.500000000000007 28.880000000000006 29.165500000000005 18.291666666666668 1.5000000000000002 23.500000000000004 57.330000000000005 16.500000000000004
decision_type=10 10 10 2 2 10 2 2 2 10 2 2 2 10 2 2 2 2 2 2 2 2 2 2 2 8 2 2 2 2
left_child=2 3 13 9 18 6 20 29 10 11 12 16 27 -1 -15 28 17 -2 19 -4 -3 22 -22 -23 -25 -20 -8 -5 -16 -6
right_child=1 5 4 8 7 -7 26 -9 -10 -11 -12 -13 -14 14 15 -17 -18 -19 25 -21 21 23 -24 24 -26 -27 -28 -29 -30 -31
leaf_value=-5.7505114306270091 2.1205227838012162 6.2868349172929419 0.96722378006618825 3.1038735549026812 2.8191227796180565 21.622556899392542 14.416823993237792 15.311585521131562 19.902785824683235 10.727400156501549 17.217784753904258 10.14433712819887 16.636455108497444 -5.113054879299618 3.046675264151669 14.205617604697473 -1.9847405408266239 13.344242953129527 -1.6315749899448857 -3.9630554406713756 8.3299239059792818 20.067856179671917 15.507408491764885 1.3008870020453722 17.183236950125934 5.6506974986237202 21.510019328411772 10.240282466023345 -2.7970168330079925 8.8496218554634218
leaf_weight=14878.124794678297 1.2062421825248733 0.29895339393988507 1.6511960711795817 1.0046224517282101 1.9710066786501559 24.256939336191863 0.57009716983884473 1.3765760930255053 3.0555817822460085 3.5492025024723262 1.9675304763950405 1.3522426772397009 0.64309741719625879 10.901370272040365 0.93162220437079657 0.17033391050063063 1.4321953291073439 0.42409667512401927 1.0185272607486697 4.2965859873220325 0.83776474348269259 2.3777223424986005 2.158721600426361 0.36847743904218111 3.1911536701954901 0.99071764270775009 6.4587837900035083 0.8064789231866597 2.3325317131821066 0.90381258632987727
leaf_count=4279994 347 86 475 289 567 6978 164 396 879 1021 566 389 185 3136 268 49 412 122 293 1236 241 684 621 106 918 285 1858 232 671 260
internal_value=-5.65483 17.7081 -5.74254 11.2641 1.89528 20.1638 17.9878 8.14614 15.6161 7.17806 12.6539 4.32461 8.99506 -5.7488 -3.97642 -0.368638 1.75494 5.04013 -1.44452 -2.59433 15.7443 16.0608 13.5007 17.3528 15.5392 1.95916 20.9347 6.2817 -1.12917 4.71505
internal_weight=0 55.9599 14904.7 15.4413 12.2084 40.5186 16.2617 4.2514 7.47731 7.96398 4.42173 4.41478 2.4542 14892.5 14.3359 3.43449 3.06253 1.63034 7.95703 5.94778 9.23279 8.93384 2.99649 5.93735 3.55963 2.00924 7.02888 1.8111 3.26415 2.87482
internal_count=4303728 16098 4287630 4442 3512 11656 4678 1223 2151 2291 1272 1270 706 4284118 4124 988 881 469 2289 1711 2656 2570 862 1708 1024 578 2022 521 939 827
is_linear=0
shrinkage=1


end of trees

feature_importances:
Column_13=8
Column_17=7
Column_5=6
Column_14=2
Column_1=1
Column_2=1
Column_3=1
Column_6=1
Column_11=1
Column_15=1
Column_19=1

parameters:
[boosting: gbdt]
[objective: binary]
[metric: auc]
[tree_learner: serial]
[device_type: cpu]
[data_sample_strategy: bagging]
[data: ]
[valid: ]
[num_iterations: 100000]
[learning_rate: 0.1]
[num_leaves: 31]
[num_threads: 8]
[seed: 42]
[deterministic: 0]
[force_col_wise: 0]
[force_row_wise: 0]
[histogram_pool_size: -1]
[max_depth: -1]
[min_data_in_leaf: 20]
[min_sum_hessian_in_leaf: 0.001]
[bagging_fraction: 1]
[pos_bagging_fraction: 1]
[neg_bagging_fraction: 1]
[bagging_freq: 0]
[bagging_seed: 400]
[feature_fraction: 1]
[feature_fraction_bynode: 1]
[feature_fraction_seed: 30056]
[extra_trees: 0]
[extra_seed: 12879]
[early_stopping_round: 0]
[first_metric_only: 0]
[max_delta_step: 0]
[lambda_l1: 0]
[lambda_l2: 0]
[linear_lambda: 0]
[min_gain_to_split: 0]
[drop_rate: 0.1]
[max_drop: 50]
[skip_drop: 0.5]
[xgboost_dart_mode: 0]
[uniform_drop: 0]
[drop_seed: 17869]
[top_rate: 0.2]
[other_rate: 0.1]
[min_data_per_group: 100]
[max_cat_threshold: 32]
[cat_l2: 10]
[cat_smooth: 10]
[max_cat_to_onehot: 4]
[top_k: 20]
[monotone_constraints: ]
[monotone_constraints_method: basic]
[monotone_penalty: 0]
[feature_contri: ]
[forcedsplits_filename: ]
[refit_decay_rate: 0.9]
[cegb_tradeoff: 1]
[cegb_penalty_split: 0]
[cegb_penalty_feature_lazy: ]
[cegb_penalty_feature_coupled: ]
[path_smooth: 0]
[interaction_constraints: ]
[verbosity: -1]
[saved_feature_importance_type: 0]
[use_quantized_grad: 0]
[num_grad_quant_bins: 4]
[quant_train_renew_leaf: 0]
[stochastic_rounding: 1]
[linear_tree: 0]
[max_bin: 255]
[max_bin_by_feature: ]
[min_data_in_bin: 3]
[bin_construct_sample_cnt: 200000]
[data_random_seed: 175]
[is_enable_sparse: 1]
[enable_bundle: 1]
[use_missing: 1]
[zero_as_missing: 0]
[feature_pre_filter: 1]
[pre_partition: 0]
[two_round: 0]
[header: 0]
[label_column: ]
[weight_column: ]
[group_column: ]
[ignore_column: ]
[categorical_feature: ]
[forcedbins_filename: ]
[precise_float_parser: 0]
[parser_config_file: ]
[objective_seed: 16083]
[num_class: 1]
[is_unbalance: 0]
[scale_pos_weight: 1]
[sigmoid: 1]
[boost_from_average: 1]
[reg_sqrt: 0]
[alpha: 0.9]
[fair_c: 1]
[poisson_max_delta_step: 0.7]
[tweedie_variance_power: 1.5]
[lambdarank_truncation_level: 30]
[lambdarank_norm: 1]
[label_gain: ]
[lambdarank_position_bias_regularization: 0]
[eval_at: ]
[multi_error_top_k: 1]
[auc_mu_weights: ]
[num_machines: 1]
[local_listen_port: 12400]
[time_out: 120]
[machine_list_filename: ]
[machines: ]
[gpu_platform_id: -1]
[gpu_device_id: -1]
[gpu_use_dp: 0]
[num_gpu: 1]

end of parameters

pandas_categorical:null
